Language model created by QuickLM on Thu May 23 09:15:19 EDT 2013
Copyright (c) 1996-2010 Carnegie Mellon University and Alexander I. Rudnicky

The model is in standard ARPA format, designed by Doug Paul while he was at MITRE.

The code that was used to produce this language model is available in Open Source.
Please visit http://www.speech.cs.cmu.edu/tools/ for more information

The (fixed) discount mass is 0.5. The backoffs are computed using the ratio method.
This model based on a corpus of 26 sentences and 27 words

\data\
ngram 1=27
ngram 2=53
ngram 3=63

\1-grams:
-1.0563 </s> -0.3010
-1.0563 <s> -0.2430
-1.5682 AND -0.2831
-2.1703 DEFROST -0.2611
-1.9942 FIFTEEN -0.2784
-1.7723 FIVE -0.2627
-1.9942 FORTY -0.2936
-2.4713 FOUR -0.2861
-1.8692 HIGH -0.2611
-2.1703 LOW -0.2611
-2.1703 MEDIUM -0.2611
-2.4713 MICROWAVE -0.2611
-1.7723 MINUTE -0.2738
-1.4713 MINUTES -0.2311
-1.4713 ON -0.2861
-1.6931 ONE -0.2921
-2.4713 SECOND -0.2861
-1.2952 SECONDS -0.2447
-2.4713 SEVEN -0.2861
-2.4713 SIX -0.2861
-2.4713 START -0.2611
-2.4713 STOP -0.2611
-2.4713 TEN -0.2784
-1.8692 THIRTY -0.2784
-2.1703 THREE -0.2861
-2.1703 TWENTY -0.2784
-1.7723 TWO -0.2627

\2-grams:
-1.7160 <s> FIFTEEN 0.0000
-1.4150 <s> FIVE 0.0000
-1.7160 <s> FORTY 0.0000
-1.7160 <s> FOUR 0.0000
-1.7160 <s> MICROWAVE 0.0000
-0.9379 <s> ONE 0.0000
-1.7160 <s> SEVEN 0.0000
-1.7160 <s> SIX 0.0000
-1.7160 <s> START 0.0000
-1.7160 <s> STOP 0.0000
-1.7160 <s> TEN 0.0000
-1.7160 <s> THIRTY 0.0000
-1.4150 <s> THREE 0.0000
-1.7160 <s> TWENTY 0.0000
-1.0170 <s> TWO 0.0000
-0.9031 AND FIFTEEN 0.0000
-0.9031 AND FORTY 0.0000
-0.7270 AND THIRTY 0.0000
-1.2041 AND TWENTY 0.0000
-0.3010 DEFROST </s> -0.3010
-0.3010 FIFTEEN SECONDS 0.0000
-1.0000 FIVE MINUTES -0.2041
-0.3979 FIVE SECONDS 0.0000
-0.3010 FORTY FIVE -0.0792
-0.3010 FOUR MINUTES -0.2041
-0.3010 HIGH </s> -0.3010
-0.3010 LOW </s> -0.3010
-0.3010 MEDIUM </s> -0.3010
-0.3010 MICROWAVE </s> -0.3010
-0.3979 MINUTE AND 0.0000
-1.0000 MINUTE ON -0.2041
-1.0000 MINUTES </s> -0.3010
-0.6990 MINUTES AND -0.0512
-0.6990 MINUTES ON 0.0000
-1.0000 ON DEFROST 0.0000
-0.6990 ON HIGH 0.0000
-1.0000 ON LOW 0.0000
-1.0000 ON MEDIUM 0.0000
-0.3802 ONE MINUTE 0.0000
-1.0792 ONE SECOND 0.0000
-0.3010 SECOND ON -0.2041
-0.4357 SECONDS </s> -0.3010
-0.8751 SECONDS ON 0.0000
-0.3010 SEVEN MINUTES -0.2041
-0.3010 SIX MINUTES -0.2041
-0.3010 START </s> -0.3010
-0.3010 STOP </s> -0.3010
-0.3010 TEN SECONDS -0.2389
-0.3010 THIRTY SECONDS -0.1027
-0.3010 THREE MINUTES -0.1461
-0.3010 TWENTY SECONDS -0.1027
-0.3979 TWO MINUTES -0.1461
-1.0000 TWO SECONDS -0.2389

\3-grams:
-0.3010 <s> FIFTEEN SECONDS
-0.6021 <s> FIVE MINUTES
-0.6021 <s> FIVE SECONDS
-0.3010 <s> FORTY FIVE
-0.3010 <s> FOUR MINUTES
-0.3010 <s> MICROWAVE </s>
-0.3802 <s> ONE MINUTE
-1.0792 <s> ONE SECOND
-0.3010 <s> SEVEN MINUTES
-0.3010 <s> SIX MINUTES
-0.3010 <s> START </s>
-0.3010 <s> STOP </s>
-0.3010 <s> TEN SECONDS
-0.3010 <s> THIRTY SECONDS
-0.3010 <s> THREE MINUTES
-0.3010 <s> TWENTY SECONDS
-0.3979 <s> TWO MINUTES
-1.0000 <s> TWO SECONDS
-0.3010 AND FIFTEEN SECONDS
-0.3010 AND FORTY FIVE
-0.3010 AND THIRTY SECONDS
-0.3010 AND TWENTY SECONDS
-0.4771 FIFTEEN SECONDS </s>
-0.7782 FIFTEEN SECONDS ON
-0.3010 FIVE MINUTES ON
-0.4260 FIVE SECONDS </s>
-0.9031 FIVE SECONDS ON
-0.3010 FORTY FIVE SECONDS
-0.3010 FOUR MINUTES ON
-0.9031 MINUTE AND FIFTEEN
-0.9031 MINUTE AND FORTY
-0.9031 MINUTE AND THIRTY
-0.9031 MINUTE AND TWENTY
-0.3010 MINUTE ON HIGH
-0.9031 MINUTES AND FIFTEEN
-0.9031 MINUTES AND FORTY
-0.6021 MINUTES AND THIRTY
-0.9031 MINUTES ON DEFROST
-0.9031 MINUTES ON HIGH
-0.9031 MINUTES ON LOW
-0.9031 MINUTES ON MEDIUM
-0.3010 ON DEFROST </s>
-0.3010 ON HIGH </s>
-0.3010 ON LOW </s>
-0.3010 ON MEDIUM </s>
-0.3979 ONE MINUTE AND
-1.0000 ONE MINUTE ON
-0.3010 ONE SECOND ON
-0.3010 SECOND ON HIGH
-0.9031 SECONDS ON DEFROST
-0.9031 SECONDS ON HIGH
-0.9031 SECONDS ON LOW
-0.9031 SECONDS ON MEDIUM
-0.3010 SEVEN MINUTES ON
-0.3010 SIX MINUTES ON
-0.3010 TEN SECONDS ON
-0.3010 THIRTY SECONDS </s>
-0.6021 THREE MINUTES </s>
-0.6021 THREE MINUTES AND
-0.3010 TWENTY SECONDS </s>
-0.9031 TWO MINUTES </s>
-0.4260 TWO MINUTES AND
-0.3010 TWO SECONDS ON

\end\
